Time,Synapse,Weight,Change
0.060015,1,218.868617525254,-0.131325529504835
1.047015,1,216.026768839173,-0.103711151356237
1.051015,1,215.914442529688,-0.112289483976951
1.055015,1,215.793542711582,-0.120853688348376
1.059015,1,215.664083854616,-0.129402745480945
1.063015,1,215.526081446923,-0.13793563943301
1.067015,1,215.37955199192,-0.146451357511637
1.071015,1,215.224513005018,-0.154948890473236
1.075015,1,215.060983010131,-0.163427232722711
1.079015,1,214.88898153599,-0.171885382511732
1.083015,1,214.708529112255,-0.180322342136179
1.087015,1,214.519647265432,-0.188737118131968
1.091015,1,214.322358514591,-0.197128721470193
1.095015,1,214.116686366895,-0.205496167750681
1.099015,1,213.902655312927,-0.213838477394461
0.801015,2,209.630545603917,-0.106926225167626
0.805015,2,209.515259553116,-0.115243589387461
0.809015,2,209.391661069772,-0.123546496206046
0.813015,2,209.259764942371,-0.131833958623133
0.817015,2,209.119586945766,-0.140104992743773
0.821015,2,208.971143838039,-0.148358617972718
0.825015,2,208.814453357158,-0.156593857208463
0.829015,2,208.649534217446,-0.164809737035682
0.833015,2,208.476406105856,-0.173005287917334
0.837015,2,208.295089678054,-0.181179544384918
0.296015,3,218.244184071318,-0.100412866736832
0.298015,3,218.139430186727,-0.10472540779287
0.300015,3,218.030365931481,-0.10903151798297
0.302015,3,217.916997822093,-0.113330942333249
0.304015,3,217.799332629914,-0.117623426538813
0.306015,3,217.677377380464,-0.12190871698877
0.308015,3,217.551139352726,-0.126186560791297
0.310015,3,217.420626078425,-0.130456705798537
0.312015,3,217.28584534128,-0.134718900631299
0.314015,3,217.146805176229,-0.13897289470367
0.316015,3,217.003513868632,-0.143218438247629
0.318015,3,216.855979953444,-0.147455282337518
0.320015,3,216.704212214375,-0.151683178914311
0.322015,3,216.548219683011,-0.155901880809722
0.324015,3,216.388011637923,-0.160111141770471
0.326015,3,216.223597603747,-0.164310716482049
0.328015,3,216.054987350236,-0.168500360592645
0.330015,3,215.882190891299,-0.17267983073674
0.332015,3,215.705218484003,-0.176848884558751
0.334015,3,215.524080627565,-0.181007280736367
0.336015,3,215.338788062308,-0.18515477900371
0.338015,3,215.149351768603,-0.189291140174788
1.297015,3,212.355901202083,-0.101948823885579
1.301015,3,212.24548361445,-0.110381387888083
1.305015,3,212.126638204842,-0.118800063717657
1.309015,3,211.999379197139,-0.127203849700152
1.313015,3,211.863721816292,-0.135591747157434
1.317015,3,211.719682285279,-0.143962760604921
1.321015,3,211.567277821878,-0.152315897948768
1.325015,3,211.406526635234,-0.160650170681549
1.329015,3,211.237447922232,-0.168964594077323
1.333015,3,211.060061863679,-0.177258187385604
1.337015,3,210.874389620288,-0.185529974023893
0.685015,4,213.534759659772,-0.394716747258798
0.689015,4,213.13153879446,-0.402480730257309
0.693015,4,212.720570344117,-0.410197236170575
0.697015,4,212.301902093057,-0.417865433097006
0.701015,4,211.875582655556,-0.42548449850625
0.705015,4,211.441661466446,-0.433053619384708
0.709015,4,211.00018877157,-0.440571992378551
0.713015,4,210.551215618086,-0.448038823934212
0.717015,4,210.094793844639,-0.455453330436171
0.721015,4,209.630976071388,-0.462814738342104
0.723015,4,209.163998928051,-0.465957767771101
0.725015,4,208.693888110584,-0.469075032780864
0.727015,4,208.220669445252,-0.47216640490052
0.729015,4,207.744368886276,-0.475231758020726
0.731015,4,207.265012513467,-0.478270968401063
0.733015,4,206.782626529854,-0.481283914676652
0.735015,4,206.297237259307,-0.484270477865067
0.737015,4,205.808871144155,-0.487230541372412
0.739015,4,205.317554742789,-0.490163990999406
0.741015,4,204.82331472727,-0.493070714947152
0.743015,4,204.326177880925,-0.495950603822479
0.745015,4,203.826171095939,-0.498803550642975
0.747015,4,203.323321370942,-0.501629450841904
0.749015,4,202.81765580859,-0.504428202272607
1.551015,4,200.080128363021,-0.104054615822378
1.555015,4,199.968094861036,-0.111990755201845
1.559015,4,199.848130006365,-0.119912858181294
1.563015,4,199.720248151302,-0.127819983324144
1.567015,4,199.584464588968,-0.135711192204468
1.571015,4,199.440795550264,-0.143585549592558
1.575015,4,199.289258200631,-0.151442123639669
1.579015,4,199.129870636643,-0.159279986061819
1.583015,4,198.962651882394,-0.167098212322543
1.587015,4,198.78762188572,-0.174895881814479
1.591015,4,198.604801514232,-0.182672078040213
1.595015,4,198.414212551171,-0.190425888791623
1.599015,4,198.215877691076,-0.198156406328167
1.623015,4,197.970222531115,-0.245370484295478
1.627015,4,197.716962982611,-0.252955304772115
1.631015,4,197.456129021112,-0.2605095813216
1.635015,4,197.187751491542,-0.268032449385089
1.639015,4,196.911862102114,-0.275523050612691
1.643015,4,196.628493418095,-0.28298053302629
1.647015,4,196.337678855394,-0.29040405118073
1.651015,4,196.039452674001,-0.297792766323226
1.653015,4,195.737764687403,-0.301243258187242
1.655015,4,195.432632281137,-0.304676253135767
1.657015,4,195.124073020312,-0.308091572925377
1.659015,4,194.81210464793,-0.311489041008286
1.661015,4,194.496745083183,-0.314868482547325
1.663015,4,194.17801241974,-0.31822972443058
1.665015,4,193.855924924019,-0.321572595285915
1.667015,4,193.530501033442,-0.324896925495324
1.669015,4,193.201759354681,-0.328202547208747
1.671015,4,192.869718661881,-0.331489294357937
1.673015,4,192.534397894882,-0.334757002670045
1.675015,4,192.195816157415,-0.338005509680897
1.677015,4,191.85399271529,-0.341234654748007
1.679015,4,191.508946994577,-0.344444279063424
1.681015,4,191.160698579761,-0.347634225666383
1.683015,4,190.809267211896,-0.350804339455493
1.685015,4,190.45467278674,-0.353954467200936
1.687015,4,190.096935352886,-0.357084457556283
1.689015,4,189.736075109866,-0.360194161070126
1.691015,4,189.372112406262,-0.363283430197271
1.693015,4,189.005067737792,-0.366352119309994
1.695015,4,188.634961745393,-0.3694000847089
1.697015,4,188.261815213284,-0.372427184633295
1.699015,4,187.885649067032,-0.375433279271817
1.701015,4,187.506484371593,-0.378418230772326
1.703015,4,187.124342329357,-0.381381903251679
1.705015,4,186.739244278169,-0.384324162805569
1.707015,4,186.351211689352,-0.38724487751756
1.709015,4,185.960266165716,-0.390143917468322
1.711015,4,185.566429439559,-0.393021154744332
1.713015,4,185.169723370655,-0.395876463446456
1.715015,4,184.770169944241,-0.398709719698275
1.717015,4,184.36779126899,-0.401520801653959
1.719015,4,183.96260957498,-0.404309589506283
1.721015,4,183.554647211649,-0.407075965493789
1.723015,4,183.143926645751,-0.409819813908342
1.725015,4,182.730470459299,-0.412541021101873
1.727015,4,182.314301347501,-0.41523947549328
1.729015,4,181.895442116693,-0.417915067574683
1.731015,4,181.473915682263,-0.42056768991776
1.733015,4,181.04974506657,-0.423197237179664
1.735015,4,180.622953396853,-0.425803606108559
1.737015,4,180.193563903143,-0.428386695549136
1.739015,4,179.761599916162,-0.430946406447674
1.741015,4,179.327084865218,-0.433482641856955
1.743015,4,178.890042276098,-0.435995306940896
1.745015,4,178.450495768957,-0.43848430897873
1.747015,4,178.008469056197,-0.440949557369294
1.749015,4,177.563985940349,-0.443390963634698
0.060015,5,212.87221704511,-0.127727569792398
0.252015,5,212.336433168967,-0.534456527323101
0.254015,5,211.797761824247,-0.537325927995028
0.256015,5,211.256231855408,-0.540166442683983
0.258015,5,210.711872204745,-0.542977975539884
0.260015,5,210.164711909824,-0.545760433276314
0.262015,5,209.614780100918,-0.548513725173081
0.264015,5,209.06210599844,-0.55123776307866
0.266015,5,208.50671891037,-0.553932461412302
0.268015,5,207.948648229683,-0.556597737165617
0.270015,5,207.387923431776,-0.559233509904118
0.272015,5,206.824574071896,-0.561839701768207
0.274015,5,206.258629782554,-0.564416237474092
0.276015,5,205.690120270959,-0.566963044314178
0.278015,5,205.119075316431,-0.569480052157388
0.280015,5,204.54552476783,-0.571967193448756
0.282015,5,203.969498540973,-0.574424403209292
0.284015,5,203.391026616061,-0.576851619034983
0.286015,5,202.810139035101,-0.579248781095913
0.288015,5,202.226865899332,-0.581615832134759
0.290015,5,201.641237366647,-0.583952717465223
0.292015,5,201.053283649028,-0.586259384970077
0.294015,5,200.463035009968,-0.588535785098685
0.296015,5,199.870521761911,-0.59078187086476
0.298015,5,199.27577426368,-0.592997597843265
0.300015,5,198.678822917921,-0.595182924167148
0.302015,5,198.079698168539,-0.597337810524238
0.304015,5,197.478430498146,-0.5994622201531
0.306015,5,196.875050425507,-0.60155611883917
0.308015,5,196.269588502994,-0.603619474910403
0.310015,5,195.662075314043,-0.605652259232528
0.312015,5,195.052541470613,-0.607654445204247
0.314015,5,194.441017610658,-0.60962600875186
0.316015,5,193.827534395593,-0.611566928323953
0.318015,5,193.212122507774,-0.613477184885369
0.320015,5,192.594812647982,-0.615356761911357
0.322015,5,191.975635532911,-0.617205645381034
0.324015,5,191.354621892665,-0.619023823770902
0.326015,5,190.731802468258,-0.620811288047832
0.328015,5,190.107208009129,-0.622568031661871
0.330015,5,189.48086927065,-0.624294050538793
0.332015,5,188.852817011659,-0.625989343072433
0.334015,5,188.223081991985,-0.627653910116578
0.336015,5,187.591694969995,-0.629287754976758
0.338015,5,186.958686700133,-0.630890883401634
0.501015,5,186.02434750471,-0.929688279000203
0.685015,5,184.754416664328,-1.26127976356503
0.689015,5,183.48581567066,-1.2599084719634
0.693015,5,182.21863653005,-1.25844591725107
0.697015,5,180.952970445237,-1.25689290841862
0.701015,5,179.688907806362,-1.25525026325701
0.705015,5,178.426538182201,-1.25351880813312
0.709015,5,177.165950311623,-1.25169937776479
0.713015,5,175.907232095273,-1.24979281499574
0.717015,5,174.650470587477,-1.24779997056953
0.721015,5,173.395751988377,-1.24572170290392
0.723015,5,172.146604533957,-1.24016565469435
0.725015,5,170.903037874969,-1.23460024774309
0.727015,5,169.665061258912,-1.22902588295253
0.729015,5,168.432683532206,-1.22344295903278
0.731015,5,167.205913142394,-1.21785187247798
0.733015,5,165.984758140363,-1.21225301754279
0.735015,5,164.769226182594,-1.20664678621952
0.737015,5,163.55932453343,-1.20103356821556
0.739015,5,162.355060067372,-1.19541375093135
0.741015,5,161.156439271389,-1.18978771943873
0.743015,5,159.963468247259,-1.18415585645971
0.745015,5,158.776152713921,-1.17851854234576
0.747015,5,157.59449800986,-1.17287615505745
0.749015,5,156.4185090955,-1.16722907014457
0.751015,5,155.248190555623,-1.16157766072672
0.753015,5,154.08354660181,-1.15592229747421
0.757015,5,152.921522613855,-1.15327573884397
0.761015,5,151.762191442768,-1.15055709164372
0.765015,5,150.605625066799,-0.60562506679949
0.685015,6,218.500684303022,-0.403896206497365
0.689015,6,218.088086208284,-0.411840747240035
0.693015,6,217.667560352119,-0.41973670677919
0.697015,6,217.239155630104,-0.427583233866699
0.701015,6,216.80292178708,-0.435379486843601
0.705015,6,216.358909407526,-0.443124633788983
0.709015,6,215.907169905792,-0.450817852666432
0.713015,6,215.447755516181,-0.458458331467568
0.717015,6,214.980719282886,-0.466045268353298
0.721015,6,214.506115049792,-0.473577871791917
0.723015,6,214.028277972889,-0.476793994928556
0.725015,6,213.547234345714,-0.479983754473437
0.727015,6,213.063010595142,-0.483147018967969
0.729015,6,212.57563327898,-0.486283659370059
0.731015,6,212.085129083547,-0.489393549061532
0.733015,6,211.591524821245,-0.492476563855178
0.735015,6,211.094847428128,-0.495532582001459
0.737015,6,210.595123961461,-0.498561484195022
0.739015,6,210.092381597272,-0.501563153580776
0.741015,6,209.586647627904,-0.504537475759889
0.743015,6,209.077949459551,-0.507484338795109
0.745015,6,208.566314609798,-0.510403633216043
0.747015,6,208.051770705149,-0.513295252024278
0.749015,6,207.534345478557,-0.516159090697556
1.551015,6,204.733154604022,-0.106474490608946
1.555015,6,204.618515671758,-0.114595191369318
1.559015,6,204.495760936745,-0.122701529301793
1.563015,6,204.364905085053,-0.130792541075891
1.567015,6,204.225963765456,-0.138867266441764
1.571015,6,204.078953586316,-0.146924748420275
1.575015,6,203.923892112274,-0.15496403349178
1.579015,6,203.760797860751,-0.162984171784188
1.583015,6,203.589690298263,-0.170984217260269
1.587015,6,203.41058983655,-0.178963227903182
1.591015,6,203.223517828517,-0.18692026590162
1.595015,6,203.028496563988,-0.194854397833296
1.599015,6,202.825549265287,-0.202764694847446
1.623015,6,202.574181194629,-0.251076774627933
1.627015,6,202.315031889183,-0.258837986278451
1.631015,6,202.048132021603,-0.266567943677899
1.635015,6,201.773513154136,-0.274265762161491
1.639015,6,201.491207732395,-0.281930563417632
1.643015,6,201.20124907898,-0.289561475654807
1.647015,6,200.903671386915,-0.297157633766346
1.651015,6,200.598509712931,-0.304718179493534
1.653015,6,200.289805726645,-0.308248915354397
1.655015,6,199.977577217907,-0.31176174739474
1.657015,6,199.661842160319,-0.315256493225974
1.659015,6,199.34261870951,-0.318732972194539
1.661015,6,199.019925201397,-0.322191005397258
1.663015,6,198.693780150432,-0.325630415696395
1.665015,6,198.364202247833,-0.329051027734437
1.667015,6,198.031210359801,-0.332452667948701
1.669015,6,197.69482352572,-0.335835164585689
1.671015,6,197.355060956343,-0.339198347715097
1.673015,6,197.011942031972,-0.342542049243775
1.675015,6,196.66548630061,-0.345866102929278
1.677015,6,196.315713476111,-0.349170344393315
1.679015,6,195.962643436311,-0.352454611134675
1.681015,6,195.60629622115,-0.355718742542336
1.683015,6,195.246692030777,-0.358962579907939
1.685015,6,194.883851223641,-0.362185966438147
1.687015,6,194.51779431458,-0.365388747266906
1.689015,6,194.148541972886,-0.368570769467084
1.691015,6,193.776115020361,-0.371731882062306
1.693015,6,193.400534429369,-0.374871936038119
1.695015,6,193.021821320867,-0.377990784353273
1.697015,6,192.63999696243,-0.381088281950355
1.699015,6,192.255082766265,-0.384164285766531
1.701015,6,191.867100287212,-0.387218654743776
1.703015,6,191.476071220737,-0.39025124983894
1.705015,6,191.082017400916,-0.393261934033603
1.707015,6,190.684960798406,-0.396250572343547
1.709015,6,190.284923518407,-0.399217031828044
1.711015,6,189.881927798618,-0.402161181598842
1.713015,6,189.475996007181,-0.405082892828943
1.715015,6,189.067150640618,-0.40798203876102
1.717015,6,188.655414321757,-0.410858494715683
1.719015,6,188.240809797653,-0.413712138099442
1.721015,6,187.823359937501,-0.416542848412263
1.723015,6,187.403087730536,-0.419350507255047
1.725015,6,186.980016283934,-0.422134998336816
1.727015,6,186.554168820698,-0.42489620748151
1.729015,6,186.125568677546,-0.42763402263455
1.731015,6,185.694239302781,-0.430348333869347
1.733015,6,185.260204254164,-0.433039033393158
1.735015,6,184.82348719678,-0.435706015552938
1.737015,6,184.384111900891,-0.438349176840973
1.739015,6,183.942102239793,-0.440968415899931
1.741015,6,183.497482187664,-0.443563633528072
1.743015,6,183.050275817402,-0.446134732683703
1.745015,6,182.600507298467,-0.448681618489871
1.747015,6,182.148200894713,-0.451204198238372
1.749015,6,181.693380962217,-0.45370238139364
0.300015,7,208.119894752777,-0.104075539892818
0.302015,7,208.01167973927,-0.10817953586357
0.304015,7,207.899362964918,-0.112276907150687
0.306015,7,207.782951135898,-0.116367411671092
0.308015,7,207.662451200329,-0.120450808028068
0.310015,7,207.537870347587,-0.124526855534981
0.312015,7,207.409216007586,-0.128595314238964
0.314015,7,207.276495850037,-0.132655944944418
0.316015,7,207.139717783694,-0.136708509236371
0.318015,7,206.99888995556,-0.14075276950399
0.320015,7,206.854020750085,-0.144788488963655
0.322015,7,206.705118788328,-0.14881543168201
0.324015,7,206.552192927109,-0.152833362599097
0.326015,7,206.395252258122,-0.156842047551066
0.328015,7,206.234306107044,-0.160841253292972
0.330015,7,206.069364032603,-0.164830747521421
0.332015,7,205.90043582564,-0.168810298897
0.334015,7,205.72753150813,-0.172779677066529
0.336015,7,205.550661332203,-0.176738652685373
0.338015,7,205.369835779121,-0.180686997439551
1.301015,7,202.597961631975,-0.105364052074975
1.305015,7,202.484518286439,-0.113400060821391
1.309015,7,202.363043779087,-0.121421856531981
1.313015,7,202.233552642824,-0.129428485923
1.317015,7,202.096060363221,-0.137418998759244
1.321015,7,201.950583375429,-0.145392448042003
1.325015,7,201.797139060905,-0.153347890196017
1.329015,7,201.635745743948,-0.161284385255613
1.333015,7,201.466422688057,-0.169200997049899
1.337015,7,201.289190092093,-0.177096793386426
0.797015,8,216.662800413394,-0.10185090173087
0.801015,8,216.552308902159,-0.110456808074105
0.805015,8,216.433216236473,-0.119048802244606
0.809015,8,216.305536671133,-0.127625861646806
0.813015,8,216.169285482921,-0.136186966690872
0.817015,8,216.02447896756,-0.144731100994733
0.821015,8,215.871134436465,-0.153257251585018
0.825015,8,215.70927021329,-0.161764409097401
0.829015,8,215.538905630286,-0.170251567975555
0.833015,8,215.360061024446,-0.178717726669305
0.837015,8,215.172757733462,-0.187161887831593
0.060015,9,217.86921744523,-0.130725869552776
1.047015,9,215.040345237167,-0.103237584455059
1.051015,9,214.928531833206,-0.111776746607205
1.055015,9,214.808184069064,-0.120301845022567
1.059015,9,214.679316348431,-0.128811865364582
1.063015,9,214.541944088718,-0.137305796330565
1.067015,9,214.396083717985,-0.145782629851766
1.071015,9,214.241752671662,-0.154241361293003
1.075015,9,214.07896938908,-0.162680989650909
1.079015,9,213.907753309798,-0.171100517751427
1.083015,9,213.728124869733,-0.179498952446068
1.087015,9,213.540105497097,-0.187875304807164
1.091015,9,213.343717608132,-0.196228590321908
1.095015,9,213.138984602662,-0.204557829085132
1.099015,9,212.925930859443,-0.212862045990818
0.060015,10,211.872816965086,-0.127127909840311
0.116015,10,211.627165827618,-0.245387461001485
0.120015,10,211.373344401918,-0.253538109297068
0.124015,10,211.1113827804,-0.261658049229993
0.128015,10,210.841311994989,-0.26974634613893
0.132015,10,210.563164010994,-0.277802071630731
0.136015,10,210.276971720808,-0.285824303757664
0.138015,10,209.986968634796,-0.289624098542674
0.140015,10,209.693171600618,-0.293406916755941
0.142015,10,209.395597670006,-0.297172555630254
0.144015,10,209.094264097119,-0.300920814060902
0.146015,10,208.789188336868,-0.304651492623634
0.148015,10,208.480388043242,-0.308364393591916
0.150015,10,208.167881067598,-0.312059320954233
0.152015,10,207.851685456948,-0.315736080431208
0.154015,10,207.531819452217,-0.319394479492274
0.156015,10,207.208301486496,-0.323034327372284
0.158015,10,206.881150183272,-0.326655435087929
0.160015,10,206.550384354637,-0.330257615453576
0.162015,10,206.216022999494,-0.333840683097435
0.164015,10,205.878085301733,-0.337404454476768
0.166015,10,205.536590628406,-0.340948747893577
0.168015,10,205.191558527868,-0.344473383509609
0.170015,10,204.843008727925,-0.347978183361079
0.172015,10,204.490961133946,-0.351462971373451
0.174015,10,204.13543582698,-0.354927573375704
0.176015,10,203.776453061839,-0.35837181711446
0.178015,10,203.414033265186,-0.361795532267877
0.180015,10,203.048197033592,-0.36519855045907
0.182015,10,202.678965131595,-0.368580705269721
0.184015,10,202.306358489733,-0.371941832252958
0.186015,10,201.930398202573,-0.37528176894611
0.188015,10,201.551105526718,-0.378600354883559
0.190015,10,201.168501878815,-0.381897431608706
0.192015,10,200.782608833534,-0.38517284268616
0.194015,10,200.393448121551,-0.388426433713477
0.196015,10,200.001041627508,-0.391658052332758
0.198015,10,199.605411387965,-0.394867548241649
0.200015,10,199.206579589345,-0.398054773204478
0.202015,10,198.804568565862,-0.40121958106289
0.204015,10,198.399400797439,-0.4043618277463
0.206015,10,197.991098907621,-0.40748137128196
0.208015,10,197.579685661472,-0.410578071804991
0.210015,10,197.165183963466,-0.413651791567787
0.212015,10,196.747616855366,-0.41670239494951
0.214015,10,196.327007514093,-0.419729748465045
0.216015,10,195.903379249591,-0.422733720773863
0.218015,10,195.476755502677,-0.425714182688438
0.220015,10,195.047159842887,-0.428671007182601
0.222015,10,194.614615966312,-0.431604069399242
0.224015,10,194.179147693424,-0.434513246658327
0.226015,10,193.740778966903,-0.437398418463999
0.228015,10,193.299533849441,-0.44025946651189
0.230015,10,192.855436521555,-0.44309627469579
0.232015,10,192.408511279387,-0.445908729114393
0.234015,10,191.958782532491,-0.448696718077429
0.236015,10,191.506274801626,-0.451460132111691
0.238015,10,191.051012716532,-0.454198863966866
0.240015,10,190.593021013708,-0.456912808620785
0.242015,10,190.132324534182,-0.459601863284803
0.244015,10,189.668948221272,-0.462265927408396
0.246015,10,189.202917118349,-0.464904902684111
0.248015,10,188.734256366593,-0.46751869305163
0.250015,10,188.262991202739,-0.470107204701833
1.055015,10,184.895180880774,-0.103549273469895
1.057015,10,184.787954290425,-0.107182874320699
1.059015,10,184.67709630532,-0.110809935814189
1.061015,10,184.562613536952,-0.114430244428888
1.063015,10,184.444512810197,-0.118043587317061
1.065015,10,184.32280116264,-0.121649752325766
1.067015,10,184.197485843874,-0.125248528017522
1.069015,10,184.068574314781,-0.128839703690971
1.071015,10,183.936074246792,-0.132423069401398
1.073015,10,183.799993521126,-0.135998415981163
1.075015,10,183.660340228008,-0.139565535060171
1.077015,10,183.517122665869,-0.143124219085934
1.079015,10,183.370349340523,-0.146674261343776
1.081015,10,183.220028964324,-0.150215455976877
1.083015,10,183.066170455307,-0.153747598005964
1.085015,10,182.908782936303,-0.157270483349293
1.087015,10,182.747875734042,-0.160783908842177
1.089015,10,182.583458378225,-0.164287672256449
1.091015,10,182.415540600591,-0.16778157231991
1.093015,10,182.244132333952,-0.171265408735536
1.095015,10,182.069243711216,-0.174738982200608
1.097015,10,181.890885064387,-0.1782020944257
1.099015,10,181.70906692355,-0.18165454815346
1.111015,10,181.505648543421,-0.203208789005942
1.115015,10,181.295205931384,-0.210216727617478
1.119015,10,181.07776405684,-0.217199165129443
1.123015,10,180.853348699136,-0.224155295626815
1.127015,10,180.621986442472,-0.231084318410865
1.131015,10,180.383704670656,-0.237985438152521
1.135015,10,180.138531561701,-0.244857865044366
1.139015,10,179.886496082271,-0.251700814950965
1.141015,10,179.631220570462,-0.254931189967181
1.143015,10,179.372719827854,-0.258146655069623
1.145015,10,179.111008828243,-0.261347039181032
1.147015,10,178.846102716206,-0.264532172680561
1.149015,10,178.578016805631,-0.267701887418553
1.151015,10,178.306766578252,-0.270856016731415
1.153015,10,178.032367682152,-0.273994395455617
1.155015,10,177.754835930265,-0.277116859942254
1.157015,10,177.474187298854,-0.280223248070826
1.159015,10,177.190437925984,-0.283313399263108
1.161015,10,176.903604109971,-0.286387154496794
1.163015,10,176.613702307828,-0.289444356318739
1.165015,10,176.320749133689,-0.292484848858265
1.167015,10,176.024761357225,-0.295508477840031
1.169015,10,175.725755902048,-0.298515090596851
1.171015,10,175.423749844094,-0.30150453608212
1.173015,10,175.118760410005,-0.304476664882259
1.175015,10,174.81080497549,-0.307431329228677
1.177015,10,174.499901063678,-0.31036838300983
1.179015,10,174.186066343458,-0.31328768178264
1.181015,10,173.869318627808,-0.316189082784177
1.183015,10,173.54967587211,-0.319072444942719
1.185015,10,173.227156172459,-0.321937628888804
1.187015,10,172.901777763957,-0.324784496965975
1.189015,10,172.573559018996,-0.32761291324141
1.191015,10,172.242518445533,-0.330422743516067
1.193015,10,171.908674685351,-0.333213855334947
1.195015,10,171.572046512318,-0.335986117996896
1.197015,10,171.232652830625,-0.338739402564215
1.199015,10,170.890512673021,-0.341473581872066
1.201015,10,170.545645199041,-0.344188530537679
1.203015,10,170.198069693216,-0.346884124969222
1.205015,10,169.847805563285,-0.34956024337464
1.207015,10,169.49487233839,-0.352216765769953
1.209015,10,169.139289667265,-0.35485357398764
1.211015,10,168.781077316419,-0.357470551684543
1.213015,10,168.420255168308,-0.360067584349736
1.215015,10,168.056843219502,-0.362644559311946
1.217015,10,167.690861578841,-0.365201365746941
1.219015,10,167.322330465587,-0.367737894684524
1.221015,10,166.951270207568,-0.370254039015407
1.223015,10,166.577701239314,-0.372749693497724
1.225015,10,166.20164410019,-0.375224754763479
1.227015,10,165.823119432516,-0.377679121324519
1.229015,10,165.442147979688,-0.380112693578496
1.231015,10,165.05875058429,-0.382525373814559
1.233015,10,164.6729481862,-0.384917066218492
1.235015,10,164.284761820692,-0.387287676878145
1.237015,10,163.894212616531,-0.389637113788154
1.239015,10,163.501321794064,-0.391965286854685
1.241015,10,163.106110663312,-0.394272107899866
1.243015,10,162.708600622042,-0.396557490665913
1.245015,10,162.308813153856,-0.398821350819162
1.247015,10,161.906769826259,-0.401063605953738
1.249015,10,161.50249228873,-0.403284175594933
0.799015,11,212.705999484105,-0.104242928917785
0.803015,11,212.59327391433,-0.112687077845237
0.807015,11,212.472109030204,-0.121117062812857
0.811015,11,212.342519331842,-0.129531881100149
0.815015,11,212.204520321462,-0.137930533037434
0.819015,11,212.058128500296,-0.146312022203745
0.823015,11,211.903361365296,-0.154675355623965
0.827015,11,211.740237405651,-0.163019543964737
0.831015,11,211.568776099108,-0.171343601729603
0.835015,11,211.388997908092,-0.179646547452819
0.839015,11,211.200924275642,-0.18792740389236
0.300015,12,218.341604578777,-0.109187160624884
0.304015,12,218.223710118409,-0.117852613349157
0.308015,12,218.097155254957,-0.126503267332339
0.312015,12,217.961955132114,-0.1351380939183
0.316015,12,217.818125921584,-0.143756067634001
0.320015,12,217.665684819861,-0.152356166392252
0.324015,12,217.504650044795,-0.160937371693819
0.328015,12,217.33504083197,-0.169498668828396
0.332015,12,217.156877430872,-0.178039047074606
0.336015,12,216.970181100859,-0.186557499898726
0.060015,14,216.869817365206,-0.130126209600689
0.116015,14,216.618372568835,-0.251174901119441
0.120015,14,216.358564788756,-0.259517781686156
0.124015,14,216.090424827108,-0.267829229636362
0.128015,14,215.813984447701,-0.276108288264851
0.132015,14,215.529276369744,-0.284354007282417
0.136015,14,215.236334261393,-0.292565442997216
0.138015,14,214.939491479956,-0.296454855583761
0.140015,14,214.638765270444,-0.300326891207732
0.142015,14,214.334173086752,-0.304181342319623
0.144015,14,214.025732589975,-0.308018003071794
0.146015,14,213.7134616467,-0.311836669336458
0.148015,14,213.397378327281,-0.315637138723815
0.150015,14,213.077500904099,-0.319419210599392
0.152015,14,212.7538478498,-0.323182686101745
0.154015,14,212.426437835524,-0.326927368159545
0.156015,14,212.095289729103,-0.330653061508428
0.158015,14,211.760422593255,-0.334359572707911
0.160015,14,211.421855683756,-0.33804671015767
0.162015,14,211.079608447595,-0.341714284113863
0.164015,14,210.733700521114,-0.345362106704982
0.166015,14,210.384151728132,-0.34898999194769
0.168015,14,210.030982078054,-0.35259775576219
0.170015,14,209.674211763961,-0.356185215987523
0.172015,14,209.31386116069,-0.359752192396428
0.174015,14,208.949950822899,-0.363298506710038
0.176015,14,208.582501483109,-0.366823982612459
0.178015,14,208.211534049742,-0.370328445764756
0.180015,14,207.837069605139,-0.37381172381896
0.182015,14,207.459129403567,-0.377273646431746
0.184015,14,207.077734869208,-0.380714045277784
0.186015,14,206.692907594143,-0.38413275406279
0.188015,14,206.304669336311,-0.387529608536482
0.190015,14,205.913042017466,-0.390904446505118
0.192015,14,205.518047721117,-0.394257107843856
0.194015,14,205.119708690455,-0.397587434508608
0.196015,14,204.71804732627,-0.400895270548176
0.198015,14,204.313086184851,-0.404180462115278
0.200015,14,203.904847975887,-0.407442857478173
0.202015,14,203.49335556034,-0.410682307031351
0.204015,14,203.078631948322,-0.413898663306355
0.206015,14,202.660700296951,-0.417091780981991
0.208015,14,202.239583908205,-0.420261516894726
0.210015,14,201.815306226756,-0.423407730048154
0.212015,14,201.387890837804,-0.426530281622831
0.214015,14,200.957361464897,-0.429629034985453
0.216015,14,200.523741967741,-0.432703855697781
0.218015,14,200.087056340004,-0.435754611525425
0.220015,14,199.647328707106,-0.43878117244634
0.222015,14,199.204583324008,-0.441783410658672
0.224015,14,198.758844572986,-0.444761200588943
0.226015,14,198.310136961405,-0.447714418899466
0.228015,14,197.858485119475,-0.450642944495655
0.230015,14,197.403913798007,-0.453546658532957
0.232015,14,196.946447866165,-0.456425444423672
0.234015,14,196.486112309201,-0.459279187843379
0.236015,14,196.022932226192,-0.462107776736985
0.238015,14,195.556932827771,-0.464911101324589
0.240015,14,195.088139433843,-0.467689054107126
0.242015,14,194.616577471309,-0.470441529871692
0.244015,14,194.142272471773,-0.473168425696343
0.246015,14,193.665250069254,-0.475869640954983
0.248015,14,193.18553599788,-0.478545077321712
0.250015,14,192.703156089596,-0.48119463877498
0.252015,14,192.218136271849,-0.483818231601447
0.300015,14,191.64232681608,-0.574103665370075
0.304015,14,191.060599680695,-0.579980360282661
0.308015,14,190.473019295323,-0.585792352083558
0.312015,14,189.879650594034,-0.59153914564439
0.316015,14,189.280559003415,-0.597220257803542
0.320015,14,188.675810430586,-0.602835217424968
0.324015,14,188.065471251155,-0.608383565454034
0.328015,14,187.449608297117,-0.613864854970245
0.332015,14,186.828288844704,-0.619278651236755
0.336015,14,186.201580602182,-0.62462453174706
0.501015,14,185.27102509777,-0.925923422294971
0.751015,14,183.884832908446,-1.37583899231589
0.755015,14,182.501711952549,-1.37273568996116
0.759015,14,181.121749360612,-1.3695461622703
0.763015,14,179.745031228516,-1.36627144640292
0.767015,14,178.371642611586,-1.36291258520794
0.771015,14,177.001667518948,-1.35947062697218
0.775015,14,175.63518890813,-1.35594662516976
0.779015,14,174.272288679919,-1.35234163821212
0.783015,14,172.913047673463,-1.34865672919892
0.787015,14,171.55754566163,-1.34489296566954
0.791015,14,170.205861346606,-1.34105141935567
0.795015,14,168.85807235575,-1.3371331659346
0.799015,14,167.514255237687,-1.3331392847839
0.803015,14,166.174485458656,-1.32907085873669
0.807015,14,164.838837399093,-1.3249289738383
0.811015,14,163.507384350464,-1.32071471910422
0.815015,14,162.180198512342,-1.31642918627892
0.819015,14,160.857350989713,-1.31207346959633
0.823015,14,159.538911790541,-1.30764866554151
0.827015,14,158.224949823552,-1.30315587261367
0.831015,14,156.915532896269,-1.29859619109084
0.835015,14,155.610727713273,-1.29397072279573
0.839015,14,154.310599874709,-1.28928057086367
1.003015,14,152.770585287866,-1.52466041775409
1.005015,14,151.242915106155,-1.24291510615456
0.300015,16,217.344610950564,-0.108688589115161
0.304015,16,217.227254821065,-0.117314473562175
0.308015,16,217.101277833701,-0.125925626842218
0.312015,16,216.966695063017,-0.134521024996303
0.316015,16,216.823522606874,-0.143099647233839
0.320015,16,216.671777583241,-0.151660476134737
0.324015,16,216.511478126782,-0.160202497850463
0.328015,16,216.342643385248,-0.168724702304075
0.332015,16,216.165293515662,-0.177226083389343
0.336015,16,215.979449680307,-0.185705639168589
0.799015,17,216.663320404739,-0.106182332246505
0.803015,17,216.548497615062,-0.114783581619093
0.807015,17,216.425078500533,-0.123370403516361
0.811015,17,216.293077831038,-0.131941776562485
0.815015,17,216.15251139721,-0.140496682489299
0.819015,17,216.003396007278,-0.149034106337751
0.823015,17,215.845749483719,-0.15755303665884
0.827015,17,215.679590659709,-0.166052465712937
0.831015,17,215.50493937537,-0.174531389668772
0.835015,17,215.321816473824,-0.182988808800786
0.839015,17,215.130243797049,-0.191423727685702
0.060015,18,218.868617525254,-0.131325529504835
0.116015,18,218.614855265322,-0.253489877166629
0.120015,18,218.352652943491,-0.261909650641797
0.124015,18,218.082041645791,-0.27029770179891
0.128015,18,217.803053428786,-0.278653065115236
0.132015,18,217.515721313244,-0.28697478154308
0.136015,18,217.220079277627,-0.295261898693042
0.138015,18,216.92050061802,-0.299187158400201
0.140015,18,216.617002738374,-0.303094880988453
0.142015,18,216.30960325345,-0.306984856995399
0.144015,18,215.998319987118,-0.310856878676134
0.146015,18,215.683170970633,-0.314710740021582
0.148015,18,215.364174440896,-0.318546236776569
0.150015,18,215.041348838698,-0.32236316645745
0.152015,18,214.714712806941,-0.326161328369977
0.154015,18,214.384285188847,-0.329940523626448
0.156015,18,214.050085026145,-0.333700555162892
0.158015,18,213.712131557248,-0.337441227755932
0.160015,18,213.370444215403,-0.341162348039319
0.162015,18,213.025042626835,-0.344863724520451
0.164015,18,212.675946608866,-0.348545167596285
0.166015,18,212.323176168023,-0.352206489569312
0.168015,18,211.966751498128,-0.355847504663217
0.170015,18,211.606692978375,-0.359468029038084
0.172015,18,211.243021171388,-0.363067880805602
0.174015,18,210.875756821267,-0.366646880043788
0.176015,18,210.504920851617,-0.370204848811625
0.178015,18,210.130534363564,-0.373741611163524
0.180015,18,209.752618633758,-0.377256993162916
0.182015,18,209.371195112355,-0.380750822896573
0.184015,18,208.986285420998,-0.384222930487738
0.186015,18,208.597911350771,-0.387673148109428
0.188015,18,208.206094860147,-0.391101309997651
0.190015,18,207.810858072926,-0.394507252463711
0.192015,18,207.412223276151,-0.397890813906912
0.194015,18,207.010212918017,-0.401251834826667
0.196015,18,206.604849605774,-0.404590157834321
0.198015,18,206.196156103605,-0.407905627664718
0.200015,18,205.784155330503,-0.411198091187629
0.202015,18,205.368870358131,-0.414467397418747
0.204015,18,204.950324408675,-0.417713397530378
0.206015,18,204.528540852684,-0.420935944862009
0.208015,18,204.103543206898,-0.424134894930603
0.210015,18,203.675355132071,-0.427310105440313
0.212015,18,203.244000430779,-0.430461436292177
0.214015,18,202.809503045219,-0.433588749593611
0.216015,18,202.371887055002,-0.43669190966736
0.218015,18,201.931176674935,-0.439770783060226
0.220015,18,201.487396252793,-0.442825238551819
0.222015,18,201.040570267086,-0.445855147162433
0.224015,18,200.590723324811,-0.4488603821612
0.226015,18,200.137880159206,-0.451840819073652
0.228015,18,199.682065627488,-0.454796335689167
0.230015,18,199.223304708588,-0.457726812067818
0.232015,18,198.761622500876,-0.460632130547395
0.234015,18,198.297044219885,-0.46351217574977
0.236015,18,197.829595196019,-0.466366834587092
0.238015,18,197.359300872266,-0.469195996267672
0.240015,18,196.886186801897,-0.471999552301668
0.242015,18,196.410278646159,-0.474777396506454
0.244015,18,195.931602171974,-0.477529425011511
0.246015,18,195.450183249615,-0.480255536263314
0.248015,18,194.966047850395,-0.482955631029739
0.250015,18,194.479222044339,-0.485629612404267
1.053015,18,191.107219621149,-0.103208240983633
1.055015,18,191.000210438158,-0.106968353254274
1.057015,18,190.889443347184,-0.110721931491668
1.059015,18,190.774924956911,-0.114468754449575
1.061015,18,190.656662097134,-0.118208601556262
1.063015,18,190.534661818081,-0.121941252936011
1.065015,18,190.408931389708,-0.12566648943087
1.067015,18,190.279478300982,-0.129384092621876
1.069015,18,190.146310259136,-0.133093844850606
1.071015,18,190.009435188902,-0.136795529240118
1.073015,18,189.868861231728,-0.140488929716412
1.075015,18,189.72459674497,-0.14417383102915
1.077015,18,189.576650301063,-0.147850018772715
1.079015,18,189.425030686672,-0.151517279407017
1.081015,18,189.269746901825,-0.155175400277983
1.083015,18,189.110808159019,-0.158824169638251
1.085015,18,188.948223882313,-0.162463376667432
1.087015,18,188.782003706392,-0.166092811492632
1.089015,18,188.612157475619,-0.169712265208318
1.091015,18,188.438695243063,-0.173321529896498
1.093015,18,188.261627269507,-0.176920398646615
1.095015,18,188.080964022435,-0.180508665575161
1.097015,18,187.896716175004,-0.184086125845425
1.099015,18,187.708894604988,-0.187652575686855
1.111015,18,187.498759580232,-0.209918513171232
1.115015,18,187.281368391383,-0.2171578459822
1.119015,18,187.056746832302,-0.224370835676154
1.123015,18,186.824921533541,-0.231556649727708
1.127015,18,186.585919957081,-0.238714460999887
1.131015,18,186.339770390914,-0.245843447902843
1.135015,18,186.086501943455,-0.252942794550535
1.139015,18,185.826144537817,-0.260011690916343
1.141015,18,185.5624401176,-0.263348729258553
1.143015,18,185.295403973113,-0.266670365378531
1.145015,18,185.025051572572,-0.269976422550201
1.147015,18,184.751398560608,-0.273266725552077
1.149015,18,184.47446075676,-0.27654110068238
1.151015,18,184.194254153949,-0.279799375774417
1.153015,18,183.91079491694,-0.283041380211245
1.155015,18,183.624099380792,-0.286266944940337
1.157015,18,183.334184049288,-0.289475902488249
1.159015,18,183.041065593351,-0.292668086974629
1.161015,18,182.744760849451,-0.295843334126403
1.163015,18,182.445286817992,-0.299001481291526
1.165015,18,182.142660661687,-0.302142367452632
1.167015,18,181.836899703926,-0.305265833240412
1.169015,18,181.528021427115,-0.308371720946752
1.171015,18,181.216043471022,-0.311459874537661
1.173015,18,180.90098363109,-0.314530139666118
1.175015,18,180.582859856756,-0.317582363684352
1.177015,18,180.261690249743,-0.320616395656401
1.179015,18,179.937493062346,-0.323632086369798
1.181015,18,179.610286695707,-0.326629288347817
1.183015,18,179.280089698076,-0.329607855860644
1.185015,18,178.946920763059,-0.332567644937001
1.187015,18,178.610798727861,-0.335508513375231
1.189015,18,178.27174257151,-0.3384303207541
1.191015,18,177.929771413074,-0.341332928443478
1.193015,18,177.584904509867,-0.344216199614863
1.195015,18,177.237161255649,-0.34707999925152
1.197015,18,176.886561178806,-0.349924194158319
1.199015,18,176.533123940526,-0.352748652971599
1.201015,18,176.176869332971,-0.355553246168625
1.203015,18,175.817817277425,-0.358337846076694
1.205015,18,175.45598782245,-0.361102326882275
1.207015,18,175.091401142015,-0.363846564639715
1.209015,18,174.724077533636,-0.366570437279677
1.211015,18,174.354037416489,-0.369273824617522
1.213015,18,173.981301329526,-0.371956608361273
1.215015,18,173.60588992958,-0.374618672119425
1.217015,18,173.227823989463,-0.377259901408394
1.219015,18,172.847124396054,-0.379880183659964
1.221015,18,172.463812148383,-0.382479408228164
1.223015,18,172.077908355706,-0.385057466396233
1.225015,18,171.689434235573,-0.387614251383013
1.227015,18,171.298411111891,-0.390149658349372
1.229015,18,170.904860412979,-0.392663584404204
1.231015,18,170.50880366962,-0.395155928610308
1.233015,18,170.110262513103,-0.397626591989848
1.235015,18,169.709258673262,-0.400075477529782
1.237015,18,169.30581397651,-0.402502490186805
1.239015,18,168.899950343868,-0.404907536892352
1.241015,18,168.491689788987,-0.407290526556949
1.243015,18,168.081054416166,-0.409651370074698
1.245015,18,167.66806641837,-0.411989980327348
1.247015,18,167.252748075239,-0.414306272188071
1.249015,18,166.835121751094,-0.416600162524958
0.060015,19,214.871017205158,-0.128926889696544
1.047015,19,211.483615653797,-0.101530052920253
1.049015,19,211.377879139227,-0.105704776176964
1.051015,19,211.267970088613,-0.109873017590502
1.053015,19,211.153895066701,-0.114034530615214
1.055015,19,211.035660884648,-0.118189069378388
1.057015,19,210.913274599343,-0.122336388704326
1.059015,19,210.786743512705,-0.126476244138644
1.061015,19,210.65607517096,-0.130608391972174
1.063015,19,210.521277363883,-0.134732589264786
1.065015,19,210.382358124035,-0.138848593869398
1.067015,19,210.239325725955,-0.142956164455427
1.069015,19,210.092188685345,-0.147055060532608
1.071015,19,209.940955758223,-0.151145042474184
1.073015,19,209.785635940055,-0.155225871540466
1.075015,19,209.626238464862,-0.159297309901945
1.077015,19,209.462772804306,-0.163359120662392
1.079015,19,209.295248666753,-0.167411067881801
1.081015,19,209.123675996311,-0.171452916599321
1.083015,19,208.948064971846,-0.175484432855711
1.085015,19,208.768426005975,-0.179505383716133
1.087015,19,208.58476974404,-0.183515537292465
1.089015,19,208.397107063053,-0.187514662765579
1.091015,19,208.205449070625,-0.191502530407377
1.093015,19,208.009807103869,-0.195478911602834
1.095015,19,207.810192728283,-0.199443578871836
1.097015,19,207.606617736611,-0.203396305890777
1.099015,19,207.399094147681,-0.207336867514073
0.799015,20,211.716669253946,-0.103758078085633
0.803015,20,211.604467989147,-0.11216295190178
0.807015,20,211.483866662621,-0.120553727636974
0.811015,20,211.354879707042,-0.12892940723458
0.815015,20,211.217522552525,-0.137288995674481
0.819015,20,211.07181162355,-0.145631501170243
0.823015,20,210.917764335689,-0.153955935365246
0.827015,20,210.755399092136,-0.162261313527694
0.831015,20,210.584735280042,-0.170546654744811
0.835015,20,210.405793266659,-0.178810982115834
0.839015,20,210.21859439529,-0.187053322943996
0.855015,20,209.997959713829,-0.220424092341403
0.859015,20,209.769165664798,-0.228565730589793
0.863015,20,209.532239431064,-0.236679564189672
0.867015,20,209.287209140634,-0.244764652407184
0.871015,20,209.034103861089,-0.252820060217886
0.875015,20,208.772953593836,-0.260844858486934
0.879015,20,208.503789268185,-0.268838124147237
0.883015,20,208.226642735241,-0.276798940376437
0.885015,20,207.945705634148,-0.280578830353306
0.887015,20,207.660994308889,-0.284342247042105
0.889015,20,207.372525307532,-0.288088987629152
0.891015,20,207.080315380624,-0.291818850917167
0.893015,20,206.784381479571,-0.295531637343089
0.895015,20,206.484740755001,-0.299227148995612
0.897015,20,206.181410555111,-0.302905189632725
0.899015,20,205.874408423986,-0.306565564698758
0.901015,20,205.563752099917,-0.310208081341329
0.903015,20,205.249459513691,-0.313832548428167
0.905015,20,204.931548786864,-0.317438776563392
0.907015,20,204.610038230026,-0.321026578103982
0.909015,20,204.28494634104,-0.324595767175623
0.911015,20,203.956291803273,-0.328146159688544
0.913015,20,203.624093483805,-0.331677573353062
0.915015,20,203.288370431628,-0.335189827694819
0.917015,20,202.949141875825,-0.338682744069899
0.919015,20,202.606427223736,-0.342156145679553
0.921015,20,202.260246059111,-0.34560985758489
0.923015,20,201.910618140245,-0.349043706721034
0.925015,20,201.557563398103,-0.352457521911305
0.927015,20,201.201101934424,-0.35585113388089
0.929015,20,200.84125401982,-0.359224375270657
0.931015,20,200.478040091856,-0.362577080650141
0.933015,20,200.111480753116,-0.365909086530877
0.935015,20,199.741596769259,-0.369220231378989
0.937015,20,199.368409067063,-0.372510355627838
0.939015,20,198.991938732453,-0.375779301690272
0.941015,20,198.612207008517,-0.379026913970677
0.943015,20,198.229235293513,-0.382253038876627
0.945015,20,197.843045138864,-0.385457524830457
0.947015,20,197.453658247137,-0.388640222280543
0.949015,20,197.061096470018,-0.391800983712187
0.951015,20,196.665381806267,-0.394939663658249
0.953015,20,196.266536399672,-0.398056118709803
0.955015,20,195.864582536987,-0.40115020752603
0.957015,20,195.459542645861,-0.40422179084436
0.959015,20,195.051439292753,-0.407270731489945
0.961015,20,194.640295180849,-0.410296894384942
0.963015,20,194.226133147956,-0.413300146557901
0.965015,20,193.808976164397,-0.416280357152232
0.967015,20,193.388847330891,-0.419237397434983
0.969015,20,192.965769876427,-0.422171140805006
0.971015,20,192.539767156131,-0.425081462800932
0.973015,20,192.110862649125,-0.427968241108999
0.975015,20,191.679079956371,-0.430831355570376
0.977015,20,191.244442798521,-0.433670688188442
0.979015,20,190.806975013749,-0.436486123135495
0.981015,20,190.366700555579,-0.439277546759683
0.983015,20,189.923643490707,-0.442044847591035
0.985015,20,189.477827996821,-0.444787916347707
0.987015,20,189.029278360405,-0.447506645941729
0.989015,20,188.578018974546,-0.450200931484488
0.991015,20,188.124074336733,-0.452870670292072
0.993015,20,187.667469046647,-0.455515761890098
0.995015,20,187.208227803956,-0.458136108018408
0.997015,20,186.74637540609,-0.460731612635669
0.999015,20,186.281936746028,-0.463302181923154
1.805015,20,183.664792272863,-0.102860202798468
1.809015,20,183.55460809509,-0.110136420532569
1.813015,20,183.437152386158,-0.117398881565919
1.817015,20,183.312439192349,-0.124646723981925
1.821015,20,183.180483421264,-0.131879088799792
1.825015,20,183.041300838857,-0.139095120143907
1.829015,20,182.894908066294,-0.146293965412838
1.833015,20,182.741322576645,-0.153474775447137
1.837015,20,182.58056269141,-0.160636704696088
1.861015,20,182.376168695367,-0.204183399698763
1.865015,20,182.164716778462,-0.211224949119867
1.869015,20,181.946232029852,-0.218240875135422
1.873015,20,181.720740352524,-0.225230367965196
1.877015,20,181.48826845818,-0.232192623070176
1.881015,20,181.248843861963,-0.23912684130687
1.885015,20,181.00249487703,-0.246032229079816
1.889015,20,180.749250608971,-0.252907998492844
1.891015,20,180.492750769,-0.256153866726862
1.893015,20,180.233010229682,-0.259384753537631
1.895015,20,179.970044036633,-0.262600487027328
1.897015,20,179.703867407061,-0.265800896761618
1.899015,20,179.434495728306,-0.268985813784383
1.901015,20,179.161944556349,-0.272155070632664
1.903015,20,178.886229614327,-0.275308501350821
1.905015,20,178.607366791012,-0.278445941505055
1.907015,20,178.325372139291,-0.281567228197304
1.909015,20,178.04026187463,-0.284672200079228
1.911015,20,177.752052373512,-0.287760697365826
1.913015,20,177.460760171881,-0.290832561848788
1.915015,20,177.166401963553,-0.29388763690983
1.917015,20,176.868994598629,-0.296925767533736
1.919015,20,176.568555081888,-0.299946800321095
1.921015,20,176.265100571163,-0.302950583500859
1.923015,20,175.958648375719,-0.305936966942852
1.925015,20,175.649215954599,-0.308905802169789
1.927015,20,175.336820914975,-0.311856942369303
1.929015,20,175.021481010478,-0.314790242405621
1.931015,20,174.703214139519,-0.317705558831051
1.933015,20,174.382038343596,-0.320602749897319
1.935015,20,174.057971805595,-0.323481675566484
1.937015,20,173.731032848075,-0.326342197521967
1.939015,20,173.401239931544,-0.329184179178867
1.941015,20,173.068611652725,-0.332007485694618
1.943015,20,172.73316674281,-0.334811983978881
1.945015,20,172.394924065707,-0.337597542703719
1.947015,20,172.053902616273,-0.340364032312948
1.949015,20,171.710121518542,-0.343111325031913
1.951015,20,171.363600023939,-0.345839294876441
1.953015,20,171.014357509486,-0.348547817661995
1.955015,20,170.662413476004,-0.35123677101231
1.957015,20,170.307787546297,-0.353906034368009
1.959015,20,169.950499463339,-0.356555488994815
1.961015,20,169.590569088439,-0.359185017991621
1.963015,20,169.228016399413,-0.361794506298196
1.965015,20,168.862861488735,-0.36438384070297
1.967015,20,168.49512456169,-0.366952909850113
1.969015,20,168.124825934514,-0.369501604246892
1.971015,20,167.751986032529,-0.372029816270214
1.973015,20,167.376625388272,-0.374537440173526
1.975015,20,166.998764639616,-0.377024372093018
1.977015,20,166.618424527883,-0.379490510053841
1.979015,20,166.235625895958,-0.381935753975938
1.981015,20,165.850389686388,-0.384360005679781
1.983015,20,165.46273693948,-0.386763168891662
1.985015,20,165.072688791396,-0.389145149249003
1.987015,20,164.680266472237,-0.391505854305166
1.989015,20,164.285491304125,-0.393845193534219
1.991015,20,163.888384699284,-0.396163078335405
1.993015,20,163.488968158111,-0.398459422037206
1.995015,20,163.087263267242,-0.400734139901488
1.997015,20,162.683291697624,-0.402987149127171
1.999015,20,162.277075202568,-0.405218368853582
0.300015,21,215.60000312741,-0.107816154496106
0.304015,21,215.483589006185,-0.116372799657995
0.308015,21,215.358623226031,-0.12491483189882
0.312015,21,215.225120740492,-0.133441235478813
0.316015,21,215.083097518213,-0.141950997801217
0.320015,21,214.932570539758,-0.150443109612667
0.324015,21,214.773557794226,-0.158916565202702
0.328015,21,214.60607827567,-0.167370362602213
0.332015,21,214.430151979314,-0.175803503780884
0.336015,21,214.245799897574,-0.184214994843529
1.301015,21,211.565650280865,-0.110027830556163
1.309015,21,211.438727821025,-0.126867447708548
1.317015,21,211.294977230163,-0.143673974453748
1.325015,21,211.134432940557,-0.160443403656956
1.333015,21,210.957133388548,-0.177171743201086
1.551015,22,210.422836826166,-0.109433493597493
1.559015,22,210.296599962946,-0.126182148247068
1.567015,22,210.153625869163,-0.142897891233815
1.575015,22,209.993948791101,-0.159576737068249
1.583015,22,209.81760695748,-0.17621471519746
1.591015,22,209.624642564201,-0.192807871580555
1.599015,22,209.415101757518,-0.209352270254527
0.060015,23,214.871017205158,-0.128926889696544
0.252015,23,214.330202494498,-0.539474898471667
0.254015,23,213.786473202878,-0.5423712418729
0.256015,23,213.239858445599,-0.545238428061282
0.258015,23,212.690387436714,-0.548076360286757
0.260015,23,212.138089486442,-0.550884944386866
0.262015,23,211.58299399858,-0.553664088789731
0.264015,23,211.025130467909,-0.556413704516018
0.266015,23,210.464528477603,-0.559133705181438
0.268015,23,209.901217696628,-0.561824006998165
0.270015,23,209.335227877145,-0.564484528776461
0.272015,23,208.766588851914,-0.567115191925637
0.276015,23,208.191166666714,-0.573856913969365
0.280015,23,207.609025987348,-0.580533610126139
0.284015,23,207.02023210517,-0.587144664392184
0.288015,23,206.424850924908,-0.593689473008737
0.292015,23,205.822948952398,-0.600167444547679
0.296015,23,205.214593282224,-0.606577999993647
0.300015,23,204.599851585288,-0.612920572823214
0.304015,23,203.97879209629,-0.619194609080779
0.308015,23,203.351483601142,-0.625399567451069
0.312015,23,202.717995424307,-0.631534919328544
0.316015,23,202.078397416064,-0.637600148883593
0.320015,23,201.432759939715,-0.6435947531252
0.324015,23,200.781153858726,-0.649518241960635
0.328015,23,200.123650523808,-0.655370138251726
0.332015,23,199.460321759945,-0.661149977867751
0.336015,23,198.791239853366,-0.666857309735263
0.501015,23,197.797766640753,-0.988527941234508
0.751015,23,196.317849751221,-1.46886368115975
0.755015,23,194.841211750615,-1.46555055502654
0.759015,23,193.367945660633,-1.46214537359808
0.763015,23,191.898143398359,-1.45864924415955
0.767015,23,190.431895769972,-1.45506328007008
0.771015,23,188.96929246471,-1.45138860049434
0.775015,23,187.510422049115,-1.44762633013505
0.779015,23,186.055371961535,-1.44377759896614
0.783015,23,184.604228506904,-1.43984354196667
0.787015,23,183.157076851775,-1.43582529885563
0.791015,23,181.714001019632,-1.43172401382776
0.795015,23,180.275083886455,-1.42754083529022
0.799015,23,178.840407176559,-1.42327691560055
0.803015,23,177.410051458684,-1.41893341080558
0.807015,23,175.984096142356,-1.41451148038149
0.811015,23,174.562619474503,-1.41001228697542
0.815015,23,173.145698536329,-1.40543699614801
0.819015,23,171.73340924045,-1.40078677611777
0.823015,23,170.32582632828,-1.3960627975064
0.827015,23,168.923023367676,-1.39126623308604
0.831015,23,167.525072750834,-1.3863982575279
0.835015,23,166.13204569244,-1.38146004715227
0.839015,23,164.744012228061,-1.37645277968087
0.855015,23,163.341439064004,-1.39064833952688
0.859015,23,161.944329016839,-1.38517618703347
0.863015,23,160.552746647412,-1.3796404645496
0.867015,23,159.166755302627,-1.37404238319857
0.871015,23,157.786417115785,-1.36838315357372
0.875015,23,156.411793007164,-1.36266398550185
0.879015,23,155.042942684832,-1.35688608780882
0.883015,23,153.679924645699,-1.35105066808765
0.885015,23,152.32584266318,-1.34216619258342
0.887015,23,150.980671925331,-0.980671925330626
1.551015,24,207.472983973463,-0.107899379201257
1.559015,24,207.348516785896,-0.12441323962679
1.567015,24,207.207547001838,-0.140894649767915
1.575015,24,207.050108387488,-0.157339680006544
1.583015,24,206.876238635646,-0.173744415451722
1.591015,24,206.685979350684,-0.190104957492991
1.599015,24,206.479376031946,-0.206417425344398
0.300015,25,214.606454725902,-0.107319305857885
0.304015,25,214.490577075281,-0.115836519475238
0.308015,25,214.366187174298,-0.124339187512192
0.312015,25,214.233299907587,-0.132826298909777
0.316015,25,214.091931170203,-0.1412968457376
0.320015,25,213.942097864459,-0.14974982339325
0.324015,25,213.783817896556,-0.158184230800856
0.328015,25,213.617110173017,-0.16659907060864
0.332015,25,213.441994596921,-0.174993349385574
0.336015,25,213.258492063945,-0.183366077816601
1.301015,25,210.590693367129,-0.109520789862358
1.309015,25,210.464355803416,-0.126282805092387
1.317015,25,210.321267657674,-0.143011882405574
1.325015,25,210.161463203504,-0.159704033133181
1.333015,25,209.984980700122,-0.176355283555012
0.799015,26,207.759348333311,-0.101818674756913
0.803015,26,207.649244288415,-0.110066448127924
0.807015,26,207.530897192292,-0.118300386933498
0.811015,26,207.404321207845,-0.126519511772244
0.815015,26,207.269531476777,-0.134722846222616
0.819015,26,207.126544116568,-0.142909417036208
0.823015,26,206.975376217265,-0.151078254330372
0.827015,26,206.816045838077,-0.159228391779521
0.831015,26,206.648572003779,-0.167358866805671
0.835015,26,206.472974700927,-0.175468720767867
0.839015,26,206.289274873882,-0.183556999150653
0.855015,26,206.07276420516,-0.216304015849033
0.859015,26,205.84824668041,-0.224293473943249
0.863015,26,205.615748974409,-0.232255647102022
0.867015,26,205.375298689407,-0.240189612175271
0.871015,26,205.126924349666,-0.248094451615685
0.875015,26,204.87065539582,-0.255969253655394
0.879015,26,204.60652217906,-0.263813112480932
0.883015,26,204.334555955143,-0.271625128406782
0.885015,26,204.058870014818,-0.275334366234574
0.887015,26,203.779480396573,-0.2790274386862
0.889015,26,203.496403339167,-0.282704146738894
0.891015,26,203.209655280051,-0.28636429295608
0.893015,26,202.919252853784,-0.290007681504903
0.895015,26,202.625212890422,-0.293634118173259
0.897015,26,202.327552413893,-0.297243410387239
0.899015,26,202.02628864036,-0.300835367227762
0.901015,26,201.721438976554,-0.304409799447114
0.903015,26,201.413021018108,-0.307966519485575
0.905015,26,201.101052547857,-0.311505341487447
0.907015,26,200.785551534137,-0.315026081317001
0.909015,26,200.466536129058,-0.318528556574222
0.911015,26,200.144024666763,-0.322012586610242
0.913015,26,199.818035661678,-0.325477992542716
0.915015,26,199.488587806738,-0.3289245972706
0.917015,26,199.155699971604,-0.33235222548916
0.919015,26,198.819391200862,-0.335760703704238
0.921015,26,198.479680712211,-0.339149860246863
0.923015,26,198.136587894633,-0.342519525287003
0.925015,26,197.79013230655,-0.345869530847523
0.927015,26,197.440333673968,-0.349199710817715
0.929015,26,197.087211888609,-0.35250990096651
0.931015,26,196.730787006027,-0.355799938955755
0.933015,26,196.371079243711,-0.359069664352717
0.935015,26,196.008108979179,-0.362318918642927
0.937015,26,195.641896748053,-0.365547545242265
0.939015,26,195.272463242127,-0.368755389509147
0.941015,26,194.899829307423,-0.371942298756267
0.943015,26,194.524015942232,-0.375108122262105
0.945015,26,194.145044295147,-0.378252711282215
0.947015,26,193.762935663079,-0.381375919060361
0.949015,26,193.37771148927,-0.384477600839062
0.951015,26,192.98939336129,-0.387557613870229
0.953015,26,192.598003009024,-0.390615817425498
0.955015,26,192.203562302651,-0.393652072805935
0.957015,26,191.806093250611,-0.396666243351945
0.959015,26,191.405617997561,-0.399658194452741
0.961015,26,191.002158822328,-0.402627793555325
0.963015,26,190.595738135845,-0.405574910173641
0.965015,26,190.186378479081,-0.40849941589704
0.967015,26,189.774102520968,-0.411401184398812
0.969015,26,189.358933056307,-0.414280091444169
0.971015,26,188.94089300368,-0.417136014898119
0.973015,26,188.520005403346,-0.41996883473314
0.975015,26,188.09629341513,-0.42277843303637
0.977015,26,187.669780316306,-0.425564694016686
0.979015,26,187.240489499473,-0.428327504011463
0.981015,26,186.808444470427,-0.431066751493148
0.983015,26,186.373668846021,-0.433782327075306
0.985015,26,185.936186352021,-0.436474123518764
0.987015,26,185.496020820958,-0.439142035737206
0.989015,26,185.053196189975,-0.441785960802548
0.991015,26,184.607736498663,-0.444405797950168
0.993015,26,184.159665886897,-0.447001448583734
0.995015,26,183.709008592667,-0.449572816279755
0.997015,26,183.255788949901,-0.452119806792012
0.999015,26,182.800031386289,-0.454642328055428
1.805015,26,180.231805501408,-0.100937582185395
1.809015,26,180.123680840976,-0.108077795849709
1.813015,26,180.008420565856,-0.115204509947858
1.817015,26,179.886038459782,-0.122316878673843
1.821015,26,179.756549151708,-0.129414059102601
1.825015,26,179.619968112897,-0.136495211356163
1.829015,26,179.47631165384,-0.143559498769605
1.833015,26,179.325596921007,-0.150606088055582
1.837015,26,179.16784189344,-0.157634149468123
1.861015,26,178.96726834592,-0.200366887554878
1.865015,26,178.759768801295,-0.207276819229776
1.869015,26,178.545367879762,-0.214161606441309
1.873015,26,178.324091000141,-0.221020454545283
1.877015,26,178.09596437485,-0.227852574040838
1.881015,26,177.86101500473,-0.234657180721712
1.885015,26,177.619270673721,-0.241433495825987
1.889015,26,177.370759943383,-0.248180746184545
1.891015,26,177.119054492943,-0.251365943984297
1.893015,26,176.864168916977,-0.254536440387398
1.895015,26,176.606117979873,-0.257692066709069
1.897015,26,176.344916614406,-0.260832655700654
1.899015,26,176.0805799203,-0.263958041564138
1.901015,26,175.813123162773,-0.267068059966647
1.903015,26,175.542561771068,-0.270162548054543
1.905015,26,175.268911336974,-0.273241344467579
1.907015,26,174.992187613323,-0.27630428935251
1.909015,26,174.712406512487,-0.279351224376825
1.911015,26,174.429584104848,-0.28238199274216
1.913015,26,174.143736617266,-0.285396439197399
1.915015,26,173.854880431524,-0.288394410051694
1.917015,26,173.563032082767,-0.29137575318731
1.919015,26,173.268208257927,-0.294340318072102
1.921015,26,172.970425794132,-0.297287955771878
1.923015,26,172.669701677107,-0.300218518962623
1.925015,26,172.36605303956,-0.303131861942319
1.927015,26,172.059497159555,-0.30602784064277
1.929015,26,171.750051458881,-0.308906312641028
1.931015,26,171.437733501397,-0.311767137170676
1.933015,26,171.122560991379,-0.314610175132884
1.935015,26,170.804551771846,-0.317435289107323
1.937015,26,170.483723822878,-0.320242343362679
1.939015,26,170.160095259927,-0.323031203867117
1.941015,26,169.833684332113,-0.325801738298452
1.943015,26,169.504509420514,-0.32855381605404
1.945015,26,169.172589036441,-0.33128730826067
1.947015,26,168.837941819707,-0.334002087783745
1.949015,26,168.500586536887,-0.336698029236913
1.951015,26,168.160542079566,-0.339375008990913
1.953015,26,167.81782746258,-0.342032905182322
1.955015,26,167.472461822246,-0.344671597722368
1.957015,26,167.124464414591,-0.34729096830506
1.959015,26,166.773854613556,-0.349890900415488
1.961015,26,166.420651909216,-0.35247127933755
1.963015,26,166.064875905966,-0.35503199216177
1.965015,26,165.706546320721,-0.357572927792631
1.967015,26,165.345682981098,-0.360093976955739
1.969015,26,164.982305823589,-0.362595032204894
1.971015,26,164.616434891734,-0.365075987928719
1.973015,26,164.248090334286,-0.367536740357195
1.975015,26,163.877292403361,-0.369977187567912
1.977015,26,163.504061452595,-0.372397229492094
1.979015,26,163.128417935286,-0.374796767920316
1.981015,26,162.75038240253,-0.377175706508183
1.983015,26,162.369975501359,-0.379533950781536
1.985015,26,161.987217972865,-0.381871408141535
1.987015,26,161.602130650326,-0.384187987869552
1.989015,26,161.214734457319,-0.386483601131715
1.991015,26,160.82505040584,-0.388758160983343
1.993015,26,160.433099594408,-0.391011582372954
1.995015,26,160.038903206172,-0.393243782146328
1.997015,26,159.642482507014,-0.395454679050033
1.999015,26,159.243858843642,-0.397644193734806
0.060015,27,215.870417285182,-0.129526549648631
1.047015,27,212.467260377768,-0.102002285724524
1.049015,27,212.361032065456,-0.106196426298709
1.051015,27,212.250611809955,-0.110384054881621
1.053015,27,212.136006206546,-0.114564923780875
1.055015,27,212.017222098065,-0.118738785980128
1.057015,27,211.894266574223,-0.122905395163428
1.059015,27,211.767146970904,-0.12706450573927
1.061015,27,211.635870869429,-0.131215872865056
1.063015,27,211.500446095808,-0.135359252470664
1.065015,27,211.36088071996,-0.139494401282747
1.067015,27,211.217183054913,-0.143621076848262
1.069015,27,211.069361655974,-0.147739037558352
1.071015,27,210.917425319889,-0.15184804267173
1.073015,27,210.761383083962,-0.155947852338329
1.075015,27,210.601244225163,-0.160038227622437
1.077015,27,210.43701825921,-0.164118930525945
1.079015,27,210.268714939622,-0.168189724011484
1.081015,27,210.096344256759,-0.17225037202536
1.083015,27,209.919916436831,-0.17630063952015
1.085015,27,209.739441940887,-0.180340292477609
1.087015,27,209.55493146378,-0.18436909793104
1.089015,27,209.366395933114,-0.18838682398777
1.091015,27,209.173846508163,-0.192393239851128
1.093015,27,208.977294578771,-0.196388115842836
1.095015,27,208.776751764229,-0.200371223424725
1.097015,27,208.57222991213,-0.204342335220502
1.099015,27,208.363741097204,-0.208301225037417
0.060015,28,217.86921744523,-0.130725869552776
1.047015,28,215.040345237167,-0.103237584455059
1.051015,28,214.928531833206,-0.111776746607205
1.055015,28,214.808184069064,-0.120301845022567
1.059015,28,214.679316348431,-0.128811865364582
1.063015,28,214.541944088718,-0.137305796330565
1.067015,28,214.396083717985,-0.145782629851766
1.071015,28,214.241752671662,-0.154241361293003
1.075015,28,214.07896938908,-0.162680989650909
1.079015,28,213.907753309798,-0.171100517751427
1.083015,28,213.728124869733,-0.179498952446068
1.087015,28,213.540105497097,-0.187875304807164
1.091015,28,213.343717608132,-0.196228590321908
1.095015,28,213.138984602662,-0.204557829085132
1.099015,28,212.925930859443,-0.212862045990818
0.799015,29,216.663320404739,-0.106182332246505
0.803015,29,216.548497615062,-0.114783581619093
0.807015,29,216.425078500533,-0.123370403516361
0.811015,29,216.293077831038,-0.131941776562485
0.815015,29,216.15251139721,-0.140496682489299
0.819015,29,216.003396007278,-0.149034106337751
0.823015,29,215.845749483719,-0.15755303665884
0.827015,29,215.679590659709,-0.166052465712937
0.831015,29,215.50493937537,-0.174531389668772
0.835015,29,215.321816473824,-0.182988808800786
0.839015,29,215.130243797049,-0.191423727685702
1.801015,29,212.592126272781,-0.110561664504928
1.809015,29,212.464588009488,-0.12748298425268
1.817015,29,212.320139968307,-0.144371053044921
1.825015,29,212.158816748574,-0.161221844305032
1.833015,29,211.980656973115,-0.178031346546902
0.300015,30,208.119894752777,-0.104075539892818
0.302015,30,208.01167973927,-0.10817953586357
0.304015,30,207.899362964918,-0.112276907150687
0.306015,30,207.782951135898,-0.116367411671092
0.308015,30,207.662451200329,-0.120450808028068
0.310015,30,207.537870347587,-0.124526855534981
0.312015,30,207.409216007586,-0.128595314238964
0.314015,30,207.276495850037,-0.132655944944418
0.316015,30,207.139717783694,-0.136708509236371
0.318015,30,206.99888995556,-0.14075276950399
0.320015,30,206.854020750085,-0.144788488963655
0.322015,30,206.705118788328,-0.14881543168201
0.324015,30,206.552192927109,-0.152833362599097
0.326015,30,206.395252258122,-0.156842047551066
0.328015,30,206.234306107044,-0.160841253292972
0.330015,30,206.069364032603,-0.164830747521421
0.332015,30,205.90043582564,-0.168810298897
0.334015,30,205.72753150813,-0.172779677066529
0.336015,30,205.550661332203,-0.176738652685373
0.338015,30,205.369835779121,-0.180686997439551
1.301015,30,202.597961631975,-0.105364052074975
1.305015,30,202.484518286439,-0.113400060821391
1.309015,30,202.363043779087,-0.121421856531981
1.313015,30,202.233552642824,-0.129428485923
1.317015,30,202.096060363221,-0.137418998759244
1.321015,30,201.950583375429,-0.145392448042003
1.325015,30,201.797139060905,-0.153347890196017
1.329015,30,201.635745743948,-0.161284385255613
1.333015,30,201.466422688057,-0.169200997049899
1.337015,30,201.289190092093,-0.177096793386426
1.353015,30,201.079938045869,-0.209054603406059
1.357015,30,200.862868854106,-0.216854926504283
1.361015,30,200.638008311359,-0.224628858796962
1.365015,30,200.40538311825,-0.232375498401154
1.369015,30,200.165020876181,-0.240093948856014
1.373015,30,199.91695008188,-0.247783319295706
1.377015,30,199.661200121766,-0.255442724620508
1.381015,30,199.397801266151,-0.263071285666371
1.383015,30,199.130767238787,-0.266696301143469
1.385015,30,198.860113582008,-0.270305649946351
1.387015,30,198.585856034205,-0.273899137223424
1.389015,30,198.308010528306,-0.277476569661189
1.391015,30,198.02659319023,-0.281037755501586
1.393015,30,197.74162033733,-0.284582504558784
1.395015,30,197.453108476815,-0.288110628236097
1.397015,30,197.161074304161,-0.291621939542466
1.399015,30,196.865534701498,-0.295116253108688
1.401015,30,196.566506735984,-0.298593385203645
1.403015,30,196.264007658166,-0.302053153750137
1.405015,30,195.958054900323,-0.30549537834051
1.407015,30,195.648666074788,-0.308919880252091
1.409015,30,195.335858972264,-0.312326482462481
1.411015,30,195.019651560121,-0.315715009664473
1.413015,30,194.700061980671,-0.319085288280689
1.415015,30,194.377108549442,-0.322437146478336
1.417015,30,194.050809753426,-0.325770414183296
1.419015,30,193.721184249318,-0.329084923094314
1.421015,30,193.38825086174,-0.332380506696637
1.423015,30,193.052028581449,-0.335657000275773
1.425015,30,192.712536563537,-0.338914240930734
1.427015,30,192.369794125613,-0.342152067587222
1.429015,30,192.023820745971,-0.34537032101025
1.431015,30,191.67463606175,-0.348568843817077
1.433015,30,191.322259867079,-0.351747480489337
1.435015,30,190.966712111206,-0.354906077385266
1.437015,30,190.608012896622,-0.358044482751524
1.439015,30,190.24618247717,-0.361162546734874
1.441015,30,189.881241256136,-0.364260121393471
1.443015,30,189.513209784343,-0.367337060708081
1.445015,30,189.142108758219,-0.370393220592945
1.447015,30,188.767959017865,-0.37342845890629
1.449015,30,188.390781545103,-0.376442635460819
1.451015,30,188.010597461526,-0.379435612033774
1.453015,30,187.627428026523,-0.382407252376737
1.455015,30,187.241294635308,-0.385357422225354
1.457015,30,186.85221881693,-0.388285989308542
1.459015,30,186.460222232279,-0.391192823357699
1.461015,30,186.065326672078,-0.394077796115369
1.463015,30,185.667554054874,-0.396940781344
1.465015,30,185.26692642501,-0.399781654834044
1.467015,30,184.863465950599,-0.402600294412167
1.469015,30,184.457194921485,-0.405396579948984
1.471015,30,184.048135747191,-0.408170393366447
1.473015,30,183.636310954876,-0.410921618645375
1.475015,30,183.221743187262,-0.413650141832136
1.477015,30,182.804455200575,-0.416355851045608
1.479015,30,182.384469862466,-0.419038636483492
1.481015,30,181.961810149931,-0.421698390428759
1.483015,30,181.536499147224,-0.424335007255195
1.485015,30,181.108560043763,-0.426948383433455
1.487015,30,180.678016132033,-0.429538417536264
1.489015,30,180.24489080548,-0.432105010243561
1.491015,30,179.809207556403,-0.434648064347556
1.493015,30,179.370989973838,-0.437167484757111
1.495015,30,178.930261741443,-0.439663178502229
1.497015,30,178.487046635371,-0.442135054738173
1.499015,30,178.041368522146,-0.444583024749136
0.060015,32,209.874016805038,-0.125928589936166
0.252015,32,209.345779180672,-0.526928970600238
0.254015,32,208.8146947563,-0.529757957178191
0.256015,32,208.28079197012,-0.532558464618006
0.258015,32,207.744099356791,-0.535330398419603
0.260015,32,207.204645544897,-0.538073666610444
0.262015,32,206.662459254427,-0.540788179748091
0.264015,32,206.117569294237,-0.543473850922624
0.266015,32,205.570004559519,-0.546130595758626
0.268015,32,205.019794029264,-0.54875833241681
0.270015,32,204.466966763723,-0.551356981595603
0.272015,32,203.911551901869,-0.553926466532033
0.274015,32,203.353578658856,-0.556466713002607
0.276015,32,202.793076323481,-0.55897764932385
0.278015,32,202.230074255636,-0.561459206352339
0.280015,32,201.664601883776,-0.563911317484695
0.282015,32,201.096688702367,-0.566333918657023
0.284015,32,200.526364269356,-0.568726948344363
0.286015,32,199.953658203621,-0.571090347559334
0.288015,32,199.37860018244,-0.573424059851163
0.290015,32,198.801219938948,-0.575728031303754
0.292015,32,198.221547259605,-0.578002210533867
0.294015,32,197.639611981659,-0.580246548688848
0.296015,32,197.055443990616,-0.582460999444123
0.298015,32,196.469073217713,-0.584645519000389
0.300015,32,195.880529637387,-0.586800066080286
0.302015,32,195.289843264757,-0.588924601925299
0.304015,32,194.697044153102,-0.59101909029178
0.306015,32,194.102162391345,-0.593083497447083
0.308015,32,193.505228101544,-0.595117792165183
0.310015,32,192.90627143638,-0.597121945722222
0.312015,32,192.305322576661,-0.599095931891497
0.314015,32,191.702411728818,-0.601039726938467
0.316015,32,191.097569122415,-0.602953309615174
0.318015,32,190.490825007664,-0.604836661154593
0.320015,32,189.88220965294,-0.606689765264719
0.322015,32,189.271753342306,-0.608512608122169
0.324015,32,188.65948637305,-0.610305178365678
0.326015,32,188.045439053213,-0.612067467089418
0.328015,32,187.429641699141,-0.613799467835634
0.330015,32,186.812124633035,-0.615501176587543
0.332015,32,186.192918180509,-0.617172591761545
0.334015,32,185.572052668154,-0.618813714199433
0.336015,32,184.949558421121,-0.620424547160184
0.338015,32,184.325465760695,-0.622005096311483
0.501015,32,183.404286272249,-0.91659407788751
0.751015,32,182.032060966187,-1.36197642495941
0.755015,32,180.662875948667,-1.35890439060782
0.759015,32,179.296817472319,-1.35574699970235
0.763015,32,177.933970765545,-1.35250527895252
0.767015,32,176.574420026677,-1.3491802606998
0.771015,32,175.218248418389,-1.34577298266873
0.775015,32,173.865538062352,-1.34228448771896
0.779015,32,172.516370034143,-1.33871582359762
0.783015,32,171.170824358399,-1.33506804269294
0.787015,32,169.828980004217,-1.33134220178803
0.791015,32,168.490914880804,-1.32753936181612
0.795015,32,167.156705833366,-1.3236605876163
0.799015,32,165.826428639247,-1.31970694769061
0.803015,32,164.500158004307,-1.31567951396184
0.807015,32,163.177967559547,-1.31157936153267
0.811015,32,161.85992985797,-1.30740756844594
0.815015,32,160.546116371684,-1.30316521544603
0.819015,32,159.236597489243,-1.29885338574167
0.823015,32,157.931442513229,-1.29447316477004
0.827015,32,156.630719658064,-1.29002563996218
0.831015,32,155.334496048061,-1.28551190051002
0.835015,32,154.042837715706,-1.28093303713464
0.839015,32,152.755809600172,-1.27629014185649
1.003015,32,151.231311767876,-1.23131176787646
0.298015,34,214.173258728787,-0.102821309469363
0.300015,34,214.06617746,-0.107049126746915
0.302015,34,213.954870588964,-0.111270379745378
0.304015,34,213.839344763916,-0.115484818783557
0.306015,34,213.719606882638,-0.119692194861699
0.308015,34,213.595664091767,-0.123892259686016
0.310015,34,213.46752378609,-0.128084765693103
0.312015,34,213.335193607802,-0.132269466074376
0.314015,34,213.198681445752,-0.136446114799952
0.316015,34,213.057995434657,-0.140614466643115
0.318015,34,212.913143954291,-0.144774277204107
0.320015,34,212.764135628659,-0.148925302934032
0.322015,34,212.610979325138,-0.153067301158643
0.324015,34,212.453684153597,-0.157200030101933
0.326015,34,212.292259465497,-0.161323248909667
0.328015,34,212.126714852959,-0.165436717672776
0.330015,34,211.957060147821,-0.169540197450601
0.332015,34,211.783305420658,-0.173633450294062
0.334015,34,211.605460979791,-0.17771623926842
0.336015,34,211.423537370266,-0.181788328476387
0.338015,34,211.23754537281,-0.185849483080688
1.297015,34,208.49488481659,-0.100095208905856
1.301015,34,208.38647482146,-0.108374453562845
1.305015,34,208.269790237481,-0.116640062559156
1.309015,34,208.144845029918,-0.124891052432872
1.313015,34,208.011654146904,-0.133126442663666
1.317015,34,207.870233516455,-0.141345255866668
1.321015,34,207.720600043298,-0.149546517986067
1.325015,34,207.562771605502,-0.157729258487336
1.329015,34,207.396767050918,-0.165892510548645
1.333015,34,207.22260619343,-0.174035311251316
1.337015,34,207.04030980901,-0.182156701768918
1.353015,34,206.825079132894,-0.21502759207479
1.357015,34,206.601807964223,-0.223050781547272
1.361015,34,206.370522834541,-0.231046826191175
1.365015,34,206.131251207343,-0.23901479835547
1.369015,34,205.884021472643,-0.246953775966176
1.373015,34,205.628862941362,-0.254862842704142
1.377015,34,205.365805839531,-0.262741088181087
1.381015,34,205.094881302327,-0.270587608113999
1.383015,34,204.820217731324,-0.274316195461864
1.385015,34,204.541831112923,-0.278028668516271
1.387015,34,204.259737635183,-0.28172482685838
1.389015,34,203.973953686258,-0.285404471651532
1.391015,34,203.684495852808,-0.289067405658756
1.393015,34,203.391380918396,-0.292713433260445
1.395015,34,203.094625861867,-0.296342360471414
1.397015,34,202.794247855709,-0.299953994957974
1.399015,34,202.490264264398,-0.303548146054652
1.401015,34,202.182692642726,-0.307124624780897
1.403015,34,201.871550734114,-0.310683243857284
1.405015,34,201.556856468903,-0.314223817721654
1.407015,34,201.238627962639,-0.317746162545006
1.409015,34,200.916883514329,-0.321250096247127
1.411015,34,200.591641604695,-0.324735438512022
1.413015,34,200.262920894404,-0.328202010802983
1.415015,34,199.930740222283,-0.331649636377705
1.417015,34,199.595118603524,-0.335078140302841
1.419015,34,199.25607522787,-0.338487349468437
1.421015,34,198.91362945779,-0.34187709260226
1.423015,34,198.567800826633,-0.345247200283666
1.425015,34,198.218609036781,-0.348597504957326
1.427015,34,197.866073957773,-0.351927840946843
1.429015,34,197.510215624427,-0.355238044467683
1.431015,34,197.151054234943,-0.358527953640419
1.433015,34,196.788610148995,-0.361797408503321
1.435015,34,196.422903885812,-0.365046251024836
1.437015,34,196.05395612224,-0.368274325115863
1.439015,34,195.681787690803,-0.371481476641577
1.441015,34,195.30641957774,-0.374667553433284
1.443015,34,194.927872921039,-0.377832405299756
1.445015,34,194.546169008454,-0.380975884038463
1.447015,34,194.161329275518,-0.384097843446483
1.449015,34,193.773375303535,-0.387198139331133
1.451015,34,193.382328817569,-0.390276629520457
1.453015,34,192.988211684423,-0.393333173873231
1.455015,34,192.591045910602,-0.396367634288936
1.457015,34,192.190853640271,-0.399379874717368
1.459015,34,191.787657153201,-0.402369761167904
1.461015,34,191.381478862709,-0.405337161718677
1.463015,34,190.972341313585,-0.40828194652525
1.465015,34,190.56026718001,-0.41120398782931
1.467015,34,190.145279263474,-0.4141031599668
1.469015,34,189.72740049067,-0.416979339376098
1.471015,34,189.306653911397,-0.419832404605501
1.473015,34,188.883062696444,-0.422662236320946
1.475015,34,188.45665013547,-0.425468717313038
1.477015,34,188.027439634877,-0.428251732504037
1.479015,34,187.595454715679,-0.431011168954456
1.481015,34,187.160719011357,-0.433746915869563
1.483015,34,186.723256265716,-0.436458864605328
1.485015,34,186.283090330728,-0.439146908674417
1.487015,34,185.840245164377,-0.441810943751562
1.489015,34,185.394744828494,-0.444450867679109
1.491015,34,184.946613486586,-0.447066580471784
1.493015,34,184.495875401662,-0.44965798432159
1.495015,34,184.042554934056,-0.452224983602292
1.497015,34,183.586676539239,-0.454767484873571
1.499015,34,183.128264765636,-0.457285396884828
0.799015,35,214.684659944422,-0.105212630582145
0.803015,35,214.570885764696,-0.113735329732179
0.807015,35,214.448593765368,-0.122243733164595
0.811015,35,214.31779858144,-0.130736828831317
0.815015,35,214.178515859336,-0.139213607763367
0.819015,35,214.030762253787,-0.147673064270748
0.823015,35,213.874555424508,-0.156114196141402
0.827015,35,213.70991403268,-0.164536004838823
0.831015,35,213.536857737239,-0.172937495699188
0.835015,35,213.355407190958,-0.181317678126788
0.839015,35,213.165584036345,-0.189675565789031
1.801015,35,210.65064566755,-0.109551968938661
1.809015,35,210.524272137255,-0.126318756085965
1.817015,35,210.381143256267,-0.14305259593948
1.825015,35,210.221293307947,-0.159749498694936
1.833015,35,210.044760562402,-0.176405489500809
0.060015,36,216.869817365206,-0.130126209600689
1.047015,36,214.053921635162,-0.102764017553881
1.051015,36,213.942621136723,-0.111264009237431
1.055015,36,213.822825426545,-0.119750001696787
1.059015,36,213.694548842245,-0.128220985248248
1.063015,36,213.557806730513,-0.136675953228121
1.067015,36,213.412615444049,-0.145113902191895
1.071015,36,213.258992338305,-0.153533832112771
1.075015,36,213.096955768029,-0.161934746579135
1.079015,36,212.926525083606,-0.170315652991093
1.083015,36,212.747720627211,-0.178675562755956
1.087015,36,212.560563728761,-0.187013491482361
1.091015,36,212.365076701672,-0.195328459173652
1.095015,36,212.16128283843,-0.203619490419612
1.099015,36,211.94920640596,-0.211885614587203
